<?xml version="1.0"?>
<opencv_storage>
<cascade>
  <stageType>BOOST</stageType>
  <featureType>HAAR</featureType>
  <height>24</height>
  <width>41</width>
  <stageParams>
    <boostType>GAB</boostType>
    <minHitRate>9.9500000476837158e-01</minHitRate>
    <maxFalseAlarm>5.0000000000000000e-01</maxFalseAlarm>
    <weightTrimRate>9.4999998807907104e-01</weightTrimRate>
    <maxDepth>1</maxDepth>
    <maxWeakCount>100</maxWeakCount></stageParams>
  <featureParams>
    <maxCatCount>0</maxCatCount>
    <featSize>1</featSize>
    <mode>BASIC</mode></featureParams>
  <stageNum>7</stageNum>
  <stages>
    <!-- stage 0 -->
    <_>
      <maxWeakCount>2</maxWeakCount>
      <stageThreshold>-3.1816405057907104e-01</stageThreshold>
      <weakClassifiers>
        <_>
          <internalNodes>
            0 -1 11 6.4434185624122620e-02</internalNodes>
          <leafValues>
            -9.7965413331985474e-01 6.2237763404846191e-01</leafValues></_>
        <_>
          <internalNodes>
            0 -1 13 1.5802932903170586e-02</internalNodes>
          <leafValues>
            -9.4054168462753296e-01 7.1414309740066528e-01</leafValues></_></weakClassifiers></_>
    <!-- stage 1 -->
    <_>
      <maxWeakCount>2</maxWeakCount>
      <stageThreshold>-7.4069249629974365e-01</stageThreshold>
      <weakClassifiers>
        <_>
          <internalNodes>
            0 -1 1 -1.0949359834194183e-01</internalNodes>
          <leafValues>
            4.1401273012161255e-01 -9.6904027462005615e-01</leafValues></_>
        <_>
          <internalNodes>
            0 -1 0 -1.3922491669654846e-01</internalNodes>
          <leafValues>
            2.2834776341915131e-01 -9.9271255731582642e-01</leafValues></_></weakClassifiers></_>
    <!-- stage 2 -->
    <_>
      <maxWeakCount>3</maxWeakCount>
      <stageThreshold>-1.2790547609329224e+00</stageThreshold>
      <weakClassifiers>
        <_>
          <internalNodes>
            0 -1 10 1.6134911775588989e-01</internalNodes>
          <leafValues>
            -8.7547171115875244e-01 8.1818181276321411e-01</leafValues></_>
        <_>
          <internalNodes>
            0 -1 9 -8.4622293710708618e-02</internalNodes>
          <leafValues>
            8.6485600471496582e-01 -8.4353679418563843e-01</leafValues></_>
        <_>
          <internalNodes>
            0 -1 12 -7.2309130700887181e-06</internalNodes>
          <leafValues>
            4.3995374441146851e-01 -1.</leafValues></_></weakClassifiers></_>
    <!-- stage 3 -->
    <_>
      <maxWeakCount>3</maxWeakCount>
      <stageThreshold>-1.1657916307449341e+00</stageThreshold>
      <weakClassifiers>
        <_>
          <internalNodes>
            0 -1 3 -3.2425177097320557e-01</internalNodes>
          <leafValues>
            8.2456141710281372e-01 -8.6155283451080322e-01</leafValues></_>
        <_>
          <internalNodes>
            0 -1 4 9.7954168915748596e-02</internalNodes>
          <leafValues>
            -8.2439517974853516e-01 7.4844366312026978e-01</leafValues></_>
        <_>
          <internalNodes>
            0 -1 2 1.0030089470092207e-05</internalNodes>
          <leafValues>
            -9.7490620613098145e-01 5.2015644311904907e-01</leafValues></_></weakClassifiers></_>
    <!-- stage 4 -->
    <_>
      <maxWeakCount>2</maxWeakCount>
      <stageThreshold>-6.2309998273849487e-01</stageThreshold>
      <weakClassifiers>
        <_>
          <internalNodes>
            0 -1 6 5.1218196749687195e-03</internalNodes>
          <leafValues>
            -9.0466731786727905e-01 3.1092438101768494e-01</leafValues></_>
        <_>
          <internalNodes>
            0 -1 16 -7.0968826548778452e-06</internalNodes>
          <leafValues>
            2.8156733512878418e-01 -1.</leafValues></_></weakClassifiers></_>
    <!-- stage 5 -->
    <_>
      <maxWeakCount>3</maxWeakCount>
      <stageThreshold>-1.0861356258392334e+00</stageThreshold>
      <weakClassifiers>
        <_>
          <internalNodes>
            0 -1 14 2.2270740941166878e-02</internalNodes>
          <leafValues>
            -8.6291080713272095e-01 7.3770493268966675e-01</leafValues></_>
        <_>
          <internalNodes>
            0 -1 7 -7.5901478528976440e-02</internalNodes>
          <leafValues>
            6.8617445230484009e-01 -7.6037645339965820e-01</leafValues></_>
        <_>
          <internalNodes>
            0 -1 16 -1.6691611381247640e-04</internalNodes>
          <leafValues>
            -9.0939927101135254e-01 5.5141496658325195e-01</leafValues></_></weakClassifiers></_>
    <!-- stage 6 -->
    <_>
      <maxWeakCount>3</maxWeakCount>
      <stageThreshold>-1.2179305553436279e+00</stageThreshold>
      <weakClassifiers>
        <_>
          <internalNodes>
            0 -1 5 7.0059793069958687e-03</internalNodes>
          <leafValues>
            -9.0541869401931763e-01 4.0540540218353271e-01</leafValues></_>
        <_>
          <internalNodes>
            0 -1 15 1.6675530932843685e-03</internalNodes>
          <leafValues>
            -9.4190639257431030e-01 4.0150043368339539e-01</leafValues></_>
        <_>
          <internalNodes>
            0 -1 8 -7.8954929485917091e-03</internalNodes>
          <leafValues>
            7.8788590431213379e-01 -7.1401232481002808e-01</leafValues></_></weakClassifiers></_></stages>
  <features>
    <_>
      <rects>
        <_>
          0 2 36 15 -1.</_>
        <_>
          12 2 12 15 3.</_></rects>
      <tilted>0</tilted></_>
    <_>
      <rects>
        <_>
          0 10 30 7 -1.</_>
        <_>
          10 10 10 7 3.</_></rects>
      <tilted>0</tilted></_>
    <_>
      <rects>
        <_>
          0 17 2 1 -1.</_>
        <_>
          1 17 1 1 2.</_></rects>
      <tilted>0</tilted></_>
    <_>
      <rects>
        <_>
          4 2 24 15 -1.</_>
        <_>
          4 7 24 5 3.</_></rects>
      <tilted>0</tilted></_>
    <_>
      <rects>
        <_>
          6 0 20 10 -1.</_>
        <_>
          6 5 20 5 2.</_></rects>
      <tilted>0</tilted></_>
    <_>
      <rects>
        <_>
          7 6 1 12 -1.</_>
        <_>
          7 10 1 4 3.</_></rects>
      <tilted>0</tilted></_>
    <_>
      <rects>
        <_>
          8 11 4 8 -1.</_>
        <_>
          8 11 2 4 2.</_>
        <_>
          10 15 2 4 2.</_></rects>
      <tilted>0</tilted></_>
    <_>
      <rects>
        <_>
          10 7 8 15 -1.</_>
        <_>
          10 12 8 5 3.</_></rects>
      <tilted>0</tilted></_>
    <_>
      <rects>
        <_>
          13 4 1 12 -1.</_>
        <_>
          13 8 1 4 3.</_></rects>
      <tilted>0</tilted></_>
    <_>
      <rects>
        <_>
          15 5 14 9 -1.</_>
        <_>
          15 8 14 3 3.</_></rects>
      <tilted>0</tilted></_>
    <_>
      <rects>
        <_>
          20 0 21 8 -1.</_>
        <_>
          20 4 21 4 2.</_></rects>
      <tilted>0</tilted></_>
    <_>
      <rects>
        <_>
          20 12 20 12 -1.</_>
        <_>
          20 16 20 4 3.</_></rects>
      <tilted>0</tilted></_>
    <_>
      <rects>
        <_>
          21 22 1 2 -1.</_>
        <_>
          21 23 1 1 2.</_></rects>
      <tilted>0</tilted></_>
    <_>
      <rects>
        <_>
          23 3 9 6 -1.</_>
        <_>
          23 5 9 2 3.</_></rects>
      <tilted>0</tilted></_>
    <_>
      <rects>
        <_>
          24 9 6 4 -1.</_>
        <_>
          24 11 6 2 2.</_></rects>
      <tilted>0</tilted></_>
    <_>
      <rects>
        <_>
          38 0 3 22 -1.</_>
        <_>
          39 0 1 22 3.</_></rects>
      <tilted>0</tilted></_>
    <_>
      <rects>
        <_>
          39 16 2 1 -1.</_>
        <_>
          40 16 1 1 2.</_></rects>
      <tilted>0</tilted></_></features></cascade>
</opencv_storage>
