<?xml version="1.0"?>
<opencv_storage>
<cascade>
  <stageType>BOOST</stageType>
  <featureType>HAAR</featureType>
  <height>24</height>
  <width>24</width>
  <stageParams>
    <boostType>GAB</boostType>
    <minHitRate>9.9500000476837158e-01</minHitRate>
    <maxFalseAlarm>5.0000000000000000e-01</maxFalseAlarm>
    <weightTrimRate>9.4999998807907104e-01</weightTrimRate>
    <maxDepth>1</maxDepth>
    <maxWeakCount>100</maxWeakCount></stageParams>
  <featureParams>
    <maxCatCount>0</maxCatCount>
    <featSize>1</featSize>
    <mode>BASIC</mode></featureParams>
  <stageNum>14</stageNum>
  <stages>
    <!-- stage 0 -->
    <_>
      <maxWeakCount>6</maxWeakCount>
      <stageThreshold>-1.6881386041641235e+00</stageThreshold>
      <weakClassifiers>
        <_>
          <internalNodes>
            0 -1 58 -1.4658001065254211e-01</internalNodes>
          <leafValues>
            5.2173912525177002e-01 -8.7844252586364746e-01</leafValues></_>
        <_>
          <internalNodes>
            0 -1 86 -2.7810702100396156e-02</internalNodes>
          <leafValues>
            4.0388727188110352e-01 -6.3818979263305664e-01</leafValues></_>
        <_>
          <internalNodes>
            0 -1 93 2.0146981114521623e-04</internalNodes>
          <leafValues>
            1.7996662855148315e-01 -8.3167797327041626e-01</leafValues></_>
        <_>
          <internalNodes>
            0 -1 127 -4.9383693840354681e-04</internalNodes>
          <leafValues>
            -7.3075824975967407e-01 2.1475802361965179e-01</leafValues></_>
        <_>
          <internalNodes>
            0 -1 116 -4.1182263521477580e-04</internalNodes>
          <leafValues>
            -8.7980967760086060e-01 1.9794200360774994e-01</leafValues></_>
        <_>
          <internalNodes>
            0 -1 22 -1.2543788761831820e-04</internalNodes>
          <leafValues>
            -6.9410365819931030e-01 2.4747174978256226e-01</leafValues></_></weakClassifiers></_>
    <!-- stage 1 -->
    <_>
      <maxWeakCount>5</maxWeakCount>
      <stageThreshold>-1.6046072244644165e+00</stageThreshold>
      <weakClassifiers>
        <_>
          <internalNodes>
            0 -1 9 -1.3535469770431519e-01</internalNodes>
          <leafValues>
            -3.3333335071802139e-02 -9.1624104976654053e-01</leafValues></_>
        <_>
          <internalNodes>
            0 -1 82 -2.9122486710548401e-02</internalNodes>
          <leafValues>
            3.5534095764160156e-01 -6.7379891872406006e-01</leafValues></_>
        <_>
          <internalNodes>
            0 -1 102 1.6297552734613419e-02</internalNodes>
          <leafValues>
            -3.8885664939880371e-01 7.6931947469711304e-01</leafValues></_>
        <_>
          <internalNodes>
            0 -1 57 2.5736140087246895e-03</internalNodes>
          <leafValues>
            -2.7365672588348389e-01 6.6721540689468384e-01</leafValues></_>
        <_>
          <internalNodes>
            0 -1 89 -2.4454961530864239e-03</internalNodes>
          <leafValues>
            7.0348984003067017e-01 -2.3496155440807343e-01</leafValues></_></weakClassifiers></_>
    <!-- stage 2 -->
    <_>
      <maxWeakCount>8</maxWeakCount>
      <stageThreshold>-1.4306141138076782e+00</stageThreshold>
      <weakClassifiers>
        <_>
          <internalNodes>
            0 -1 66 -4.2401082813739777e-02</internalNodes>
          <leafValues>
            4.0000000596046448e-01 -8.5406923294067383e-01</leafValues></_>
        <_>
          <internalNodes>
            0 -1 65 -3.0990289524197578e-02</internalNodes>
          <leafValues>
            1.9544893503189087e-01 -6.6357541084289551e-01</leafValues></_>
        <_>
          <internalNodes>
            0 -1 64 -6.8150013685226440e-03</internalNodes>
          <leafValues>
            4.8565241694450378e-01 -3.2352221012115479e-01</leafValues></_>
        <_>
          <internalNodes>
            0 -1 76 -1.1461634188890457e-02</internalNodes>
          <leafValues>
            5.8741068840026855e-01 -2.0113268494606018e-01</leafValues></_>
        <_>
          <internalNodes>
            0 -1 129 -2.4810957256704569e-04</internalNodes>
          <leafValues>
            -6.6929858922958374e-01 1.9869989156723022e-01</leafValues></_>
        <_>
          <internalNodes>
            0 -1 129 1.1752148566301912e-04</internalNodes>
          <leafValues>
            2.6300948858261108e-01 -4.8093894124031067e-01</leafValues></_>
        <_>
          <internalNodes>
            0 -1 42 -1.7385769635438919e-02</internalNodes>
          <leafValues>
            7.5211924314498901e-01 -2.0690891146659851e-01</leafValues></_>
        <_>
          <internalNodes>
            0 -1 77 1.5579979866743088e-02</internalNodes>
          <leafValues>
            -2.9981660842895508e-01 4.3634009361267090e-01</leafValues></_></weakClassifiers></_>
    <!-- stage 3 -->
    <_>
      <maxWeakCount>6</maxWeakCount>
      <stageThreshold>-1.6046396493911743e+00</stageThreshold>
      <weakClassifiers>
        <_>
          <internalNodes>
            0 -1 36 -1.1261253058910370e-01</internalNodes>
          <leafValues>
            6.6666668653488159e-01 -8.4458833932876587e-01</leafValues></_>
        <_>
          <internalNodes>
            0 -1 73 -1.3460358977317810e-01</internalNodes>
          <leafValues>
            1.1744050681591034e-01 -5.8770251274108887e-01</leafValues></_>
        <_>
          <internalNodes>
            0 -1 122 -9.7015430219471455e-04</internalNodes>
          <leafValues>
            -9.8891675472259521e-01 1.0842461884021759e-01</leafValues></_>
        <_>
          <internalNodes>
            0 -1 128 -4.3363579607103020e-05</internalNodes>
          <leafValues>
            -5.6961077451705933e-01 2.3197047412395477e-01</leafValues></_>
        <_>
          <internalNodes>
            0 -1 59 -1.1731368431355804e-04</internalNodes>
          <leafValues>
            -6.4000034332275391e-01 2.0154094696044922e-01</leafValues></_>
        <_>
          <internalNodes>
            0 -1 26 5.4726922826375812e-05</internalNodes>
          <leafValues>
            2.2369463741779327e-01 -5.4096561670303345e-01</leafValues></_></weakClassifiers></_>
    <!-- stage 4 -->
    <_>
      <maxWeakCount>8</maxWeakCount>
      <stageThreshold>-1.8715656995773315e+00</stageThreshold>
      <weakClassifiers>
        <_>
          <internalNodes>
            0 -1 101 1.8804464489221573e-02</internalNodes>
          <leafValues>
            -8.4831458330154419e-01 1.6129031777381897e-01</leafValues></_>
        <_>
          <internalNodes>
            0 -1 12 6.5117791295051575e-02</internalNodes>
          <leafValues>
            -6.1794489622116089e-01 2.8034469112753868e-02</leafValues></_>
        <_>
          <internalNodes>
            0 -1 2 -4.2234957218170166e-03</internalNodes>
          <leafValues>
            -6.3918089866638184e-01 1.5813329815864563e-01</leafValues></_>
        <_>
          <internalNodes>
            0 -1 83 7.6730118598788977e-04</internalNodes>
          <leafValues>
            -2.1794195473194122e-01 5.9563326835632324e-01</leafValues></_>
        <_>
          <internalNodes>
            0 -1 61 2.1301996894180775e-03</internalNodes>
          <leafValues>
            -1.3536226749420166e-01 7.6647263765335083e-01</leafValues></_>
        <_>
          <internalNodes>
            0 -1 44 4.0854880353435874e-04</internalNodes>
          <leafValues>
            2.3228010535240173e-01 -5.0992727279663086e-01</leafValues></_>
        <_>
          <internalNodes>
            0 -1 67 1.3232727069407701e-03</internalNodes>
          <leafValues>
            -1.9656701385974884e-01 5.6798750162124634e-01</leafValues></_>
        <_>
          <internalNodes>
            0 -1 74 -1.0472929105162621e-02</internalNodes>
          <leafValues>
            4.3316352367401123e-01 -2.4584834277629852e-01</leafValues></_></weakClassifiers></_>
    <!-- stage 5 -->
    <_>
      <maxWeakCount>9</maxWeakCount>
      <stageThreshold>-1.7188478708267212e+00</stageThreshold>
      <weakClassifiers>
        <_>
          <internalNodes>
            0 -1 34 -1.6688933968544006e-01</internalNodes>
          <leafValues>
            6.9230771064758301e-01 -8.3793741464614868e-01</leafValues></_>
        <_>
          <internalNodes>
            0 -1 63 1.4979280531406403e-02</internalNodes>
          <leafValues>
            -4.7675642371177673e-01 3.5091096162796021e-01</leafValues></_>
        <_>
          <internalNodes>
            0 -1 5 -1.6961345076560974e-01</internalNodes>
          <leafValues>
            3.5727274417877197e-01 -3.3819249272346497e-01</leafValues></_>
        <_>
          <internalNodes>
            0 -1 72 1.8897878006100655e-02</internalNodes>
          <leafValues>
            -2.4154540896415710e-01 5.5745172500610352e-01</leafValues></_>
        <_>
          <internalNodes>
            0 -1 0 -1.1493682395666838e-03</internalNodes>
          <leafValues>
            -7.1444571018218994e-01 1.6435769200325012e-01</leafValues></_>
        <_>
          <internalNodes>
            0 -1 60 -2.7496768161654472e-03</internalNodes>
          <leafValues>
            4.6089065074920654e-01 -2.0805336534976959e-01</leafValues></_>
        <_>
          <internalNodes>
            0 -1 107 1.0608921293169260e-03</internalNodes>
          <leafValues>
            1.8554326891899109e-01 -6.3634550571441650e-01</leafValues></_>
        <_>
          <internalNodes>
            0 -1 87 1.8153762444853783e-02</internalNodes>
          <leafValues>
            -2.4567621946334839e-01 5.1252132654190063e-01</leafValues></_>
        <_>
          <internalNodes>
            0 -1 28 -3.3812902867794037e-02</internalNodes>
          <leafValues>
            5.9308224916458130e-01 -1.8330180644989014e-01</leafValues></_></weakClassifiers></_>
    <!-- stage 6 -->
    <_>
      <maxWeakCount>11</maxWeakCount>
      <stageThreshold>-1.7629641294479370e+00</stageThreshold>
      <weakClassifiers>
        <_>
          <internalNodes>
            0 -1 32 -3.4645122289657593e-01</internalNodes>
          <leafValues>
            3.0434781312942505e-01 -8.4386616945266724e-01</leafValues></_>
        <_>
          <internalNodes>
            0 -1 103 -6.1985794454813004e-03</internalNodes>
          <leafValues>
            3.8800743222236633e-01 -4.7359699010848999e-01</leafValues></_>
        <_>
          <internalNodes>
            0 -1 114 3.1535644666291773e-05</internalNodes>
          <leafValues>
            1.9695486128330231e-01 -5.2510720491409302e-01</leafValues></_>
        <_>
          <internalNodes>
            0 -1 108 1.7884006956592202e-04</internalNodes>
          <leafValues>
            1.5907947719097137e-01 -5.7394194602966309e-01</leafValues></_>
        <_>
          <internalNodes>
            0 -1 81 9.7262942290399224e-05</internalNodes>
          <leafValues>
            1.8492653965950012e-01 -5.5414700508117676e-01</leafValues></_>
        <_>
          <internalNodes>
            0 -1 23 -5.4791825823485851e-04</internalNodes>
          <leafValues>
            -4.7748234868049622e-01 1.9678346812725067e-01</leafValues></_>
        <_>
          <internalNodes>
            0 -1 18 3.9492166251875460e-05</internalNodes>
          <leafValues>
            2.0911379158496857e-01 -4.7430497407913208e-01</leafValues></_>
        <_>
          <internalNodes>
            0 -1 100 1.2479762081056833e-03</internalNodes>
          <leafValues>
            -2.0246051251888275e-01 5.5333465337753296e-01</leafValues></_>
        <_>
          <internalNodes>
            0 -1 97 -7.9265056410804391e-04</internalNodes>
          <leafValues>
            5.9005075693130493e-01 -1.5508146584033966e-01</leafValues></_>
        <_>
          <internalNodes>
            0 -1 96 -2.6413351297378540e-02</internalNodes>
          <leafValues>
            5.7679939270019531e-01 -1.6035045683383942e-01</leafValues></_>
        <_>
          <internalNodes>
            0 -1 47 -4.0186415426433086e-03</internalNodes>
          <leafValues>
            5.2186119556427002e-01 -2.0510812103748322e-01</leafValues></_></weakClassifiers></_>
    <!-- stage 7 -->
    <_>
      <maxWeakCount>12</maxWeakCount>
      <stageThreshold>-1.8050401210784912e+00</stageThreshold>
      <weakClassifiers>
        <_>
          <internalNodes>
            0 -1 71 1.6420979052782059e-02</internalNodes>
          <leafValues>
            -8.3903795480728149e-01 3.3333334326744080e-01</leafValues></_>
        <_>
          <internalNodes>
            0 -1 75 4.0294513106346130e-02</internalNodes>
          <leafValues>
            -5.8899086713790894e-01 3.8294371217489243e-02</leafValues></_>
        <_>
          <internalNodes>
            0 -1 123 -1.6432315111160278e-02</internalNodes>
          <leafValues>
            -6.7845785617828369e-01 1.1537761986255646e-01</leafValues></_>
        <_>
          <internalNodes>
            0 -1 17 -4.5901452540419996e-04</internalNodes>
          <leafValues>
            -6.6649699211120605e-01 1.4431223273277283e-01</leafValues></_>
        <_>
          <internalNodes>
            0 -1 3 -2.7483776211738586e-03</internalNodes>
          <leafValues>
            3.9140132069587708e-01 -2.3563544452190399e-01</leafValues></_>
        <_>
          <internalNodes>
            0 -1 1 9.1713089495897293e-03</internalNodes>
          <leafValues>
            1.6050143539905548e-01 -6.2599521875381470e-01</leafValues></_>
        <_>
          <internalNodes>
            0 -1 6 -4.3828788329847157e-04</internalNodes>
          <leafValues>
            2.5991338491439819e-01 -3.3220210671424866e-01</leafValues></_>
        <_>
          <internalNodes>
            0 -1 39 7.6735997572541237e-03</internalNodes>
          <leafValues>
            1.3831196725368500e-01 -6.1687916517257690e-01</leafValues></_>
        <_>
          <internalNodes>
            0 -1 46 9.6573391929268837e-03</internalNodes>
          <leafValues>
            -3.5745611786842346e-01 2.6752126216888428e-01</leafValues></_>
        <_>
          <internalNodes>
            0 -1 78 1.2355886865407228e-03</internalNodes>
          <leafValues>
            -1.6770380735397339e-01 5.3619682788848877e-01</leafValues></_>
        <_>
          <internalNodes>
            0 -1 90 1.1538601393112913e-04</internalNodes>
          <leafValues>
            -2.9686135053634644e-01 3.3074492216110229e-01</leafValues></_>
        <_>
          <internalNodes>
            0 -1 105 2.2970314603298903e-04</internalNodes>
          <leafValues>
            1.5636390447616577e-01 -5.9238564968109131e-01</leafValues></_></weakClassifiers></_>
    <!-- stage 8 -->
    <_>
      <maxWeakCount>10</maxWeakCount>
      <stageThreshold>-1.7993128299713135e+00</stageThreshold>
      <weakClassifiers>
        <_>
          <internalNodes>
            0 -1 54 -2.9099786281585693e-01</internalNodes>
          <leafValues>
            7.7777779102325439e-01 -8.3302754163742065e-01</leafValues></_>
        <_>
          <internalNodes>
            0 -1 50 -4.2946720495820045e-03</internalNodes>
          <leafValues>
            1.5194222331047058e-01 -4.7715526819229126e-01</leafValues></_>
        <_>
          <internalNodes>
            0 -1 20 1.3886969827581197e-04</internalNodes>
          <leafValues>
            1.6325677931308746e-01 -4.0218150615692139e-01</leafValues></_>
        <_>
          <internalNodes>
            0 -1 30 -1.6013276763260365e-03</internalNodes>
          <leafValues>
            3.3889153599739075e-01 -2.5644212961196899e-01</leafValues></_>
        <_>
          <internalNodes>
            0 -1 13 8.7881914805620909e-04</internalNodes>
          <leafValues>
            9.8770052194595337e-02 -8.1497156620025635e-01</leafValues></_>
        <_>
          <internalNodes>
            0 -1 52 3.3631874248385429e-04</internalNodes>
          <leafValues>
            -2.2290615737438202e-01 3.7715071439743042e-01</leafValues></_>
        <_>
          <internalNodes>
            0 -1 121 -6.0191348893567920e-04</internalNodes>
          <leafValues>
            -5.4217398166656494e-01 1.5570585429668427e-01</leafValues></_>
        <_>
          <internalNodes>
            0 -1 8 5.9326300397515297e-03</internalNodes>
          <leafValues>
            -2.1309213340282440e-01 3.8262203335762024e-01</leafValues></_>
        <_>
          <internalNodes>
            0 -1 92 1.3748262426815927e-04</internalNodes>
          <leafValues>
            1.6518458724021912e-01 -5.0092643499374390e-01</leafValues></_>
        <_>
          <internalNodes>
            0 -1 80 1.0448502143844962e-04</internalNodes>
          <leafValues>
            -3.1440916657447815e-01 2.5622829794883728e-01</leafValues></_></weakClassifiers></_>
    <!-- stage 9 -->
    <_>
      <maxWeakCount>11</maxWeakCount>
      <stageThreshold>-1.5992133617401123e+00</stageThreshold>
      <weakClassifiers>
        <_>
          <internalNodes>
            0 -1 37 7.3565185070037842e-02</internalNodes>
          <leafValues>
            -8.2815355062484741e-01 1.</leafValues></_>
        <_>
          <internalNodes>
            0 -1 79 1.1999394046142697e-03</internalNodes>
          <leafValues>
            -5.3402024507522583e-01 4.1742332279682159e-02</leafValues></_>
        <_>
          <internalNodes>
            0 -1 38 -8.0336857354268432e-04</internalNodes>
          <leafValues>
            2.1384215354919434e-01 -3.9222893118858337e-01</leafValues></_>
        <_>
          <internalNodes>
            0 -1 99 -3.8110870867967606e-02</internalNodes>
          <leafValues>
            3.4491065144538879e-01 -2.8064230084419250e-01</leafValues></_>
        <_>
          <internalNodes>
            0 -1 40 2.0754676312208176e-02</internalNodes>
          <leafValues>
            -1.5535542368888855e-01 5.5962252616882324e-01</leafValues></_>
        <_>
          <internalNodes>
            0 -1 110 1.1570912320166826e-03</internalNodes>
          <leafValues>
            1.5766009688377380e-01 -8.2678610086441040e-01</leafValues></_>
        <_>
          <internalNodes>
            0 -1 56 4.2268045945093036e-04</internalNodes>
          <leafValues>
            -2.7973824739456177e-01 3.5061612725257874e-01</leafValues></_>
        <_>
          <internalNodes>
            0 -1 94 6.5563723910599947e-04</internalNodes>
          <leafValues>
            -3.1885290145874023e-01 2.5365421175956726e-01</leafValues></_>
        <_>
          <internalNodes>
            0 -1 125 1.6899384558200836e-02</internalNodes>
          <leafValues>
            -1.2242518365383148e-01 7.5992178916931152e-01</leafValues></_>
        <_>
          <internalNodes>
            0 -1 21 6.9536212831735611e-03</internalNodes>
          <leafValues>
            -1.6126306354999542e-01 4.4751557707786560e-01</leafValues></_>
        <_>
          <internalNodes>
            0 -1 24 -7.7249525929801166e-05</internalNodes>
          <leafValues>
            -4.7480589151382446e-01 2.0353446900844574e-01</leafValues></_></weakClassifiers></_>
    <!-- stage 10 -->
    <_>
      <maxWeakCount>11</maxWeakCount>
      <stageThreshold>-1.4049335718154907e+00</stageThreshold>
      <weakClassifiers>
        <_>
          <internalNodes>
            0 -1 84 -1.2217743322253227e-02</internalNodes>
          <leafValues>
            1. -8.2982617616653442e-01</leafValues></_>
        <_>
          <internalNodes>
            0 -1 111 -1.0455315932631493e-03</internalNodes>
          <leafValues>
            -8.1999465823173523e-02 -5.7420641183853149e-01</leafValues></_>
        <_>
          <internalNodes>
            0 -1 98 -3.8490274164360017e-05</internalNodes>
          <leafValues>
            -4.2539516091346741e-01 1.5357042849063873e-01</leafValues></_>
        <_>
          <internalNodes>
            0 -1 124 3.2873020973056555e-03</internalNodes>
          <leafValues>
            -1.2680199742317200e-01 6.0531866550445557e-01</leafValues></_>
        <_>
          <internalNodes>
            0 -1 48 -1.9364790932741016e-04</internalNodes>
          <leafValues>
            -5.7199859619140625e-01 1.5103359520435333e-01</leafValues></_>
        <_>
          <internalNodes>
            0 -1 51 -1.1831820011138916e-03</internalNodes>
          <leafValues>
            4.3025031685829163e-01 -1.6998347640037537e-01</leafValues></_>
        <_>
          <internalNodes>
            0 -1 62 5.6273499503731728e-03</internalNodes>
          <leafValues>
            -1.6009645164012909e-01 4.9973005056381226e-01</leafValues></_>
        <_>
          <internalNodes>
            0 -1 112 -2.9469199944287539e-04</internalNodes>
          <leafValues>
            -4.9026229977607727e-01 1.6284149885177612e-01</leafValues></_>
        <_>
          <internalNodes>
            0 -1 68 -5.1744654774665833e-04</internalNodes>
          <leafValues>
            3.2477191090583801e-01 -2.7806478738784790e-01</leafValues></_>
        <_>
          <internalNodes>
            0 -1 126 -7.6761876698583364e-04</internalNodes>
          <leafValues>
            -9.0987485647201538e-01 7.8157246112823486e-02</leafValues></_>
        <_>
          <internalNodes>
            0 -1 91 9.4611445092596114e-05</internalNodes>
          <leafValues>
            -2.5349688529968262e-01 2.9948320984840393e-01</leafValues></_></weakClassifiers></_>
    <!-- stage 11 -->
    <_>
      <maxWeakCount>11</maxWeakCount>
      <stageThreshold>-1.3820725679397583e+00</stageThreshold>
      <weakClassifiers>
        <_>
          <internalNodes>
            0 -1 55 -5.8929935097694397e-02</internalNodes>
          <leafValues>
            1. -8.2815355062484741e-01</leafValues></_>
        <_>
          <internalNodes>
            0 -1 70 2.3808885365724564e-02</internalNodes>
          <leafValues>
            -4.5393383502960205e-01 1.0796171426773071e-01</leafValues></_>
        <_>
          <internalNodes>
            0 -1 106 6.2306923791766167e-04</internalNodes>
          <leafValues>
            1.4153975248336792e-01 -4.1937690973281860e-01</leafValues></_>
        <_>
          <internalNodes>
            0 -1 53 4.2267050594091415e-03</internalNodes>
          <leafValues>
            -1.8750087916851044e-01 3.9401045441627502e-01</leafValues></_>
        <_>
          <internalNodes>
            0 -1 104 -2.9995005577802658e-02</internalNodes>
          <leafValues>
            6.7115873098373413e-01 -9.7330115735530853e-02</leafValues></_>
        <_>
          <internalNodes>
            0 -1 31 -4.5430924743413925e-02</internalNodes>
          <leafValues>
            2.3672181367874146e-01 -3.1034228205680847e-01</leafValues></_>
        <_>
          <internalNodes>
            0 -1 7 3.5815155133605003e-03</internalNodes>
          <leafValues>
            1.0674703866243362e-01 -7.8862196207046509e-01</leafValues></_>
        <_>
          <internalNodes>
            0 -1 35 -4.7705918550491333e-03</internalNodes>
          <leafValues>
            3.3801159262657166e-01 -2.2736671566963196e-01</leafValues></_>
        <_>
          <internalNodes>
            0 -1 88 5.1327785477042198e-03</internalNodes>
          <leafValues>
            -2.1576888859272003e-01 3.5964241623878479e-01</leafValues></_>
        <_>
          <internalNodes>
            0 -1 14 -1.6536614298820496e-01</internalNodes>
          <leafValues>
            -9.1452109813690186e-01 7.9603090882301331e-02</leafValues></_>
        <_>
          <internalNodes>
            0 -1 69 6.3177660107612610e-02</internalNodes>
          <leafValues>
            6.3369736075401306e-02 -8.6048483848571777e-01</leafValues></_></weakClassifiers></_>
    <!-- stage 12 -->
    <_>
      <maxWeakCount>11</maxWeakCount>
      <stageThreshold>-1.5370734930038452e+00</stageThreshold>
      <weakClassifiers>
        <_>
          <internalNodes>
            0 -1 29 2.0094263553619385e-01</internalNodes>
          <leafValues>
            -8.3858996629714966e-01 1.4285714924335480e-01</leafValues></_>
        <_>
          <internalNodes>
            0 -1 43 -6.5478961914777756e-03</internalNodes>
          <leafValues>
            1.8614274263381958e-01 -4.6134719252586365e-01</leafValues></_>
        <_>
          <internalNodes>
            0 -1 113 2.6263513136655092e-03</internalNodes>
          <leafValues>
            5.0721652805805206e-02 -9.2151123285293579e-01</leafValues></_>
        <_>
          <internalNodes>
            0 -1 15 1.9304981688037515e-03</internalNodes>
          <leafValues>
            1.0123807191848755e-01 -7.8749495744705200e-01</leafValues></_>
        <_>
          <internalNodes>
            0 -1 120 -5.6732876691967249e-04</internalNodes>
          <leafValues>
            3.5312569141387939e-01 -2.3077683150768280e-01</leafValues></_>
        <_>
          <internalNodes>
            0 -1 27 7.2068825364112854e-02</internalNodes>
          <leafValues>
            9.6392400562763214e-02 -9.3660384416580200e-01</leafValues></_>
        <_>
          <internalNodes>
            0 -1 49 2.4923812597990036e-02</internalNodes>
          <leafValues>
            -2.0526818931102753e-01 4.0392836928367615e-01</leafValues></_>
        <_>
          <internalNodes>
            0 -1 115 3.2604439184069633e-04</internalNodes>
          <leafValues>
            1.6012446582317352e-01 -4.8144102096557617e-01</leafValues></_>
        <_>
          <internalNodes>
            0 -1 41 1.0477628558874130e-02</internalNodes>
          <leafValues>
            7.8602306544780731e-02 -8.8407099246978760e-01</leafValues></_>
        <_>
          <internalNodes>
            0 -1 109 2.1288269199430943e-03</internalNodes>
          <leafValues>
            -2.4407719075679779e-01 2.8637796640396118e-01</leafValues></_>
        <_>
          <internalNodes>
            0 -1 33 -1.2155345082283020e-01</internalNodes>
          <leafValues>
            -9.4687426090240479e-01 6.7017346620559692e-02</leafValues></_></weakClassifiers></_>
    <!-- stage 13 -->
    <_>
      <maxWeakCount>12</maxWeakCount>
      <stageThreshold>-1.7222626209259033e+00</stageThreshold>
      <weakClassifiers>
        <_>
          <internalNodes>
            0 -1 85 -3.2139878720045090e-02</internalNodes>
          <leafValues>
            1. -8.2815355062484741e-01</leafValues></_>
        <_>
          <internalNodes>
            0 -1 10 1.0649276897311211e-02</internalNodes>
          <leafValues>
            -5.4300791025161743e-01 -3.6449834704399109e-02</leafValues></_>
        <_>
          <internalNodes>
            0 -1 45 8.7501049041748047e-02</internalNodes>
          <leafValues>
            -2.4224059283733368e-01 3.0196091532707214e-01</leafValues></_>
        <_>
          <internalNodes>
            0 -1 11 -1.6097235493361950e-03</internalNodes>
          <leafValues>
            1.8233112990856171e-01 -4.2007178068161011e-01</leafValues></_>
        <_>
          <internalNodes>
            0 -1 95 -5.9202317148447037e-02</internalNodes>
          <leafValues>
            4.0576279163360596e-01 -1.6539293527603149e-01</leafValues></_>
        <_>
          <internalNodes>
            0 -1 117 -7.4873748235404491e-04</internalNodes>
          <leafValues>
            2.8514143824577332e-01 -2.7153864502906799e-01</leafValues></_>
        <_>
          <internalNodes>
            0 -1 119 -3.5441404907032847e-04</internalNodes>
          <leafValues>
            -4.6899774670600891e-01 1.9349853694438934e-01</leafValues></_>
        <_>
          <internalNodes>
            0 -1 118 1.3547229173127562e-04</internalNodes>
          <leafValues>
            -2.5414907932281494e-01 3.2731238007545471e-01</leafValues></_>
        <_>
          <internalNodes>
            0 -1 19 -2.2036832571029663e-01</internalNodes>
          <leafValues>
            -4.8726850748062134e-01 1.8596769869327545e-01</leafValues></_>
        <_>
          <internalNodes>
            0 -1 25 -1.5833745419513434e-04</internalNodes>
          <leafValues>
            -5.2827870845794678e-01 1.3346067070960999e-01</leafValues></_>
        <_>
          <internalNodes>
            0 -1 4 -4.8350864090025425e-03</internalNodes>
          <leafValues>
            3.8793098926544189e-01 -2.1818599104881287e-01</leafValues></_>
        <_>
          <internalNodes>
            0 -1 16 5.2976128645241261e-03</internalNodes>
          <leafValues>
            -3.4188842773437500e-01 2.2344283759593964e-01</leafValues></_></weakClassifiers></_></stages>
  <features>
    <_>
      <rects>
        <_>
          0 0 1 6 -1.</_>
        <_>
          0 2 1 2 3.</_></rects>
      <tilted>0</tilted></_>
    <_>
      <rects>
        <_>
          0 0 1 22 -1.</_>
        <_>
          0 11 1 11 2.</_></rects>
      <tilted>0</tilted></_>
    <_>
      <rects>
        <_>
          0 0 22 1 -1.</_>
        <_>
          11 0 11 1 2.</_></rects>
      <tilted>0</tilted></_>
    <_>
      <rects>
        <_>
          0 1 2 12 -1.</_>
        <_>
          0 1 1 6 2.</_>
        <_>
          1 7 1 6 2.</_></rects>
      <tilted>0</tilted></_>
    <_>
      <rects>
        <_>
          0 4 6 11 -1.</_>
        <_>
          2 4 2 11 3.</_></rects>
      <tilted>0</tilted></_>
    <_>
      <rects>
        <_>
          0 4 24 14 -1.</_>
        <_>
          8 4 8 14 3.</_></rects>
      <tilted>0</tilted></_>
    <_>
      <rects>
        <_>
          0 6 14 3 -1.</_>
        <_>
          0 7 14 1 3.</_></rects>
      <tilted>0</tilted></_>
    <_>
      <rects>
        <_>
          0 8 1 6 -1.</_>
        <_>
          0 10 1 2 3.</_></rects>
      <tilted>0</tilted></_>
    <_>
      <rects>
        <_>
          0 9 6 7 -1.</_>
        <_>
          2 9 2 7 3.</_></rects>
      <tilted>0</tilted></_>
    <_>
      <rects>
        <_>
          0 9 21 11 -1.</_>
        <_>
          7 9 7 11 3.</_></rects>
      <tilted>0</tilted></_>
    <_>
      <rects>
        <_>
          0 9 10 8 -1.</_>
        <_>
          0 13 10 4 2.</_></rects>
      <tilted>0</tilted></_>
    <_>
      <rects>
        <_>
          0 11 14 1 -1.</_>
        <_>
          7 11 7 1 2.</_></rects>
      <tilted>0</tilted></_>
    <_>
      <rects>
        <_>
          0 12 24 12 -1.</_>
        <_>
          0 18 24 6 2.</_></rects>
      <tilted>0</tilted></_>
    <_>
      <rects>
        <_>
          0 13 1 3 -1.</_>
        <_>
          0 14 1 1 3.</_></rects>
      <tilted>0</tilted></_>
    <_>
      <rects>
        <_>
          0 13 21 5 -1.</_>
        <_>
          7 13 7 5 3.</_></rects>
      <tilted>0</tilted></_>
    <_>
      <rects>
        <_>
          0 16 2 3 -1.</_>
        <_>
          1 16 1 3 2.</_></rects>
      <tilted>0</tilted></_>
    <_>
      <rects>
        <_>
          0 17 18 6 -1.</_>
        <_>
          0 20 18 3 2.</_></rects>
      <tilted>0</tilted></_>
    <_>
      <rects>
        <_>
          0 18 1 3 -1.</_>
        <_>
          0 19 1 1 3.</_></rects>
      <tilted>0</tilted></_>
    <_>
      <rects>
        <_>
          0 21 1 2 -1.</_>
        <_>
          0 22 1 1 2.</_></rects>
      <tilted>0</tilted></_>
    <_>
      <rects>
        <_>
          1 0 16 20 -1.</_>
        <_>
          1 10 16 10 2.</_></rects>
      <tilted>0</tilted></_>
    <_>
      <rects>
        <_>
          1 2 4 3 -1.</_>
        <_>
          1 3 4 1 3.</_></rects>
      <tilted>0</tilted></_>
    <_>
      <rects>
        <_>
          1 5 18 1 -1.</_>
        <_>
          7 5 6 1 3.</_></rects>
      <tilted>0</tilted></_>
    <_>
      <rects>
        <_>
          1 7 2 1 -1.</_>
        <_>
          2 7 1 1 2.</_></rects>
      <tilted>0</tilted></_>
    <_>
      <rects>
        <_>
          1 16 1 8 -1.</_>
        <_>
          1 20 1 4 2.</_></rects>
      <tilted>0</tilted></_>
    <_>
      <rects>
        <_>
          1 20 3 4 -1.</_>
        <_>
          2 20 1 4 3.</_></rects>
      <tilted>0</tilted></_>
    <_>
      <rects>
        <_>
          2 1 1 4 -1.</_>
        <_>
          2 3 1 2 2.</_></rects>
      <tilted>0</tilted></_>
    <_>
      <rects>
        <_>
          2 1 2 3 -1.</_>
        <_>
          2 2 2 1 3.</_></rects>
      <tilted>0</tilted></_>
    <_>
      <rects>
        <_>
          2 5 12 8 -1.</_>
        <_>
          6 5 4 8 3.</_></rects>
      <tilted>0</tilted></_>
    <_>
      <rects>
        <_>
          2 8 4 12 -1.</_>
        <_>
          2 12 4 4 3.</_></rects>
      <tilted>0</tilted></_>
    <_>
      <rects>
        <_>
          2 9 19 8 -1.</_>
        <_>
          2 13 19 4 2.</_></rects>
      <tilted>0</tilted></_>
    <_>
      <rects>
        <_>
          2 13 4 6 -1.</_>
        <_>
          2 13 2 3 2.</_>
        <_>
          4 16 2 3 2.</_></rects>
      <tilted>0</tilted></_>
    <_>
      <rects>
        <_>
          3 0 11 10 -1.</_>
        <_>
          3 5 11 5 2.</_></rects>
      <tilted>0</tilted></_>
    <_>
      <rects>
        <_>
          3 1 15 15 -1.</_>
        <_>
          3 6 15 5 3.</_></rects>
      <tilted>0</tilted></_>
    <_>
      <rects>
        <_>
          3 2 14 22 -1.</_>
        <_>
          3 2 7 11 2.</_>
        <_>
          10 13 7 11 2.</_></rects>
      <tilted>0</tilted></_>
    <_>
      <rects>
        <_>
          3 6 10 9 -1.</_>
        <_>
          3 9 10 3 3.</_></rects>
      <tilted>0</tilted></_>
    <_>
      <rects>
        <_>
          3 7 4 6 -1.</_>
        <_>
          3 10 4 3 2.</_></rects>
      <tilted>0</tilted></_>
    <_>
      <rects>
        <_>
          3 7 20 6 -1.</_>
        <_>
          3 9 20 2 3.</_></rects>
      <tilted>0</tilted></_>
    <_>
      <rects>
        <_>
          3 11 15 2 -1.</_>
        <_>
          8 11 5 2 3.</_></rects>
      <tilted>0</tilted></_>
    <_>
      <rects>
        <_>
          3 14 12 8 -1.</_>
        <_>
          9 14 6 8 2.</_></rects>
      <tilted>0</tilted></_>
    <_>
      <rects>
        <_>
          3 15 3 9 -1.</_>
        <_>
          3 18 3 3 3.</_></rects>
      <tilted>0</tilted></_>
    <_>
      <rects>
        <_>
          4 4 3 9 -1.</_>
        <_>
          4 7 3 3 3.</_></rects>
      <tilted>0</tilted></_>
    <_>
      <rects>
        <_>
          4 4 8 3 -1.</_>
        <_>
          4 5 8 1 3.</_></rects>
      <tilted>0</tilted></_>
    <_>
      <rects>
        <_>
          4 12 6 3 -1.</_>
        <_>
          7 12 3 3 2.</_></rects>
      <tilted>0</tilted></_>
    <_>
      <rects>
        <_>
          4 14 4 2 -1.</_>
        <_>
          6 14 2 2 2.</_></rects>
      <tilted>0</tilted></_>
    <_>
      <rects>
        <_>
          5 1 7 2 -1.</_>
        <_>
          5 2 7 1 2.</_></rects>
      <tilted>0</tilted></_>
    <_>
      <rects>
        <_>
          5 9 16 9 -1.</_>
        <_>
          13 9 8 9 2.</_></rects>
      <tilted>0</tilted></_>
    <_>
      <rects>
        <_>
          5 15 13 6 -1.</_>
        <_>
          5 18 13 3 2.</_></rects>
      <tilted>0</tilted></_>
    <_>
      <rects>
        <_>
          5 16 6 4 -1.</_>
        <_>
          5 16 3 2 2.</_>
        <_>
          8 18 3 2 2.</_></rects>
      <tilted>0</tilted></_>
    <_>
      <rects>
        <_>
          6 2 2 2 -1.</_>
        <_>
          7 2 1 2 2.</_></rects>
      <tilted>0</tilted></_>
    <_>
      <rects>
        <_>
          6 4 6 17 -1.</_>
        <_>
          8 4 2 17 3.</_></rects>
      <tilted>0</tilted></_>
    <_>
      <rects>
        <_>
          6 7 6 3 -1.</_>
        <_>
          6 8 6 1 3.</_></rects>
      <tilted>0</tilted></_>
    <_>
      <rects>
        <_>
          6 9 2 4 -1.</_>
        <_>
          6 9 1 2 2.</_>
        <_>
          7 11 1 2 2.</_></rects>
      <tilted>0</tilted></_>
    <_>
      <rects>
        <_>
          6 10 1 3 -1.</_>
        <_>
          6 11 1 1 3.</_></rects>
      <tilted>0</tilted></_>
    <_>
      <rects>
        <_>
          6 20 8 4 -1.</_>
        <_>
          6 20 4 2 2.</_>
        <_>
          10 22 4 2 2.</_></rects>
      <tilted>0</tilted></_>
    <_>
      <rects>
        <_>
          7 6 15 9 -1.</_>
        <_>
          7 9 15 3 3.</_></rects>
      <tilted>0</tilted></_>
    <_>
      <rects>
        <_>
          7 10 16 2 -1.</_>
        <_>
          15 10 8 2 2.</_></rects>
      <tilted>0</tilted></_>
    <_>
      <rects>
        <_>
          7 11 2 2 -1.</_>
        <_>
          7 11 1 1 2.</_>
        <_>
          8 12 1 1 2.</_></rects>
      <tilted>0</tilted></_>
    <_>
      <rects>
        <_>
          7 12 3 5 -1.</_>
        <_>
          8 12 1 5 3.</_></rects>
      <tilted>0</tilted></_>
    <_>
      <rects>
        <_>
          8 0 4 24 -1.</_>
        <_>
          8 8 4 8 3.</_></rects>
      <tilted>0</tilted></_>
    <_>
      <rects>
        <_>
          8 1 1 2 -1.</_>
        <_>
          8 2 1 1 2.</_></rects>
      <tilted>0</tilted></_>
    <_>
      <rects>
        <_>
          8 7 14 2 -1.</_>
        <_>
          8 7 7 1 2.</_>
        <_>
          15 8 7 1 2.</_></rects>
      <tilted>0</tilted></_>
    <_>
      <rects>
        <_>
          8 8 1 3 -1.</_>
        <_>
          8 9 1 1 3.</_></rects>
      <tilted>0</tilted></_>
    <_>
      <rects>
        <_>
          8 12 2 8 -1.</_>
        <_>
          8 12 1 4 2.</_>
        <_>
          9 16 1 4 2.</_></rects>
      <tilted>0</tilted></_>
    <_>
      <rects>
        <_>
          8 15 6 6 -1.</_>
        <_>
          10 15 2 6 3.</_></rects>
      <tilted>0</tilted></_>
    <_>
      <rects>
        <_>
          9 1 2 18 -1.</_>
        <_>
          10 1 1 18 2.</_></rects>
      <tilted>0</tilted></_>
    <_>
      <rects>
        <_>
          9 1 4 10 -1.</_>
        <_>
          9 6 4 5 2.</_></rects>
      <tilted>0</tilted></_>
    <_>
      <rects>
        <_>
          9 3 1 21 -1.</_>
        <_>
          9 10 1 7 3.</_></rects>
      <tilted>0</tilted></_>
    <_>
      <rects>
        <_>
          9 7 1 3 -1.</_>
        <_>
          9 8 1 1 3.</_></rects>
      <tilted>0</tilted></_>
    <_>
      <rects>
        <_>
          9 7 4 2 -1.</_>
        <_>
          9 7 2 1 2.</_>
        <_>
          11 8 2 1 2.</_></rects>
      <tilted>0</tilted></_>
    <_>
      <rects>
        <_>
          9 10 7 12 -1.</_>
        <_>
          9 14 7 4 3.</_></rects>
      <tilted>0</tilted></_>
    <_>
      <rects>
        <_>
          9 12 6 12 -1.</_>
        <_>
          11 12 2 12 3.</_></rects>
      <tilted>0</tilted></_>
    <_>
      <rects>
        <_>
          9 13 4 2 -1.</_>
        <_>
          11 13 2 2 2.</_></rects>
      <tilted>0</tilted></_>
    <_>
      <rects>
        <_>
          9 14 9 6 -1.</_>
        <_>
          12 14 3 6 3.</_></rects>
      <tilted>0</tilted></_>
    <_>
      <rects>
        <_>
          10 0 7 21 -1.</_>
        <_>
          10 7 7 7 3.</_></rects>
      <tilted>0</tilted></_>
    <_>
      <rects>
        <_>
          10 4 2 9 -1.</_>
        <_>
          10 7 2 3 3.</_></rects>
      <tilted>0</tilted></_>
    <_>
      <rects>
        <_>
          10 5 14 6 -1.</_>
        <_>
          17 5 7 6 2.</_></rects>
      <tilted>0</tilted></_>
    <_>
      <rects>
        <_>
          10 6 4 10 -1.</_>
        <_>
          10 6 2 5 2.</_>
        <_>
          12 11 2 5 2.</_></rects>
      <tilted>0</tilted></_>
    <_>
      <rects>
        <_>
          10 6 12 10 -1.</_>
        <_>
          10 6 6 5 2.</_>
        <_>
          16 11 6 5 2.</_></rects>
      <tilted>0</tilted></_>
    <_>
      <rects>
        <_>
          10 13 2 1 -1.</_>
        <_>
          11 13 1 1 2.</_></rects>
      <tilted>0</tilted></_>
    <_>
      <rects>
        <_>
          10 15 3 3 -1.</_>
        <_>
          11 15 1 3 3.</_></rects>
      <tilted>0</tilted></_>
    <_>
      <rects>
        <_>
          10 16 3 3 -1.</_>
        <_>
          10 17 3 1 3.</_></rects>
      <tilted>0</tilted></_>
    <_>
      <rects>
        <_>
          11 0 4 2 -1.</_>
        <_>
          11 0 2 1 2.</_>
        <_>
          13 1 2 1 2.</_></rects>
      <tilted>0</tilted></_>
    <_>
      <rects>
        <_>
          11 2 2 15 -1.</_>
        <_>
          11 7 2 5 3.</_></rects>
      <tilted>0</tilted></_>
    <_>
      <rects>
        <_>
          11 11 2 2 -1.</_>
        <_>
          11 11 1 1 2.</_>
        <_>
          12 12 1 1 2.</_></rects>
      <tilted>0</tilted></_>
    <_>
      <rects>
        <_>
          11 11 4 1 -1.</_>
        <_>
          13 11 2 1 2.</_></rects>
      <tilted>0</tilted></_>
    <_>
      <rects>
        <_>
          11 12 3 6 -1.</_>
        <_>
          11 15 3 3 2.</_></rects>
      <tilted>0</tilted></_>
    <_>
      <rects>
        <_>
          12 0 2 12 -1.</_>
        <_>
          12 6 2 6 2.</_></rects>
      <tilted>0</tilted></_>
    <_>
      <rects>
        <_>
          12 1 4 22 -1.</_>
        <_>
          12 1 2 11 2.</_>
        <_>
          14 12 2 11 2.</_></rects>
      <tilted>0</tilted></_>
    <_>
      <rects>
        <_>
          12 4 2 16 -1.</_>
        <_>
          12 4 1 8 2.</_>
        <_>
          13 12 1 8 2.</_></rects>
      <tilted>0</tilted></_>
    <_>
      <rects>
        <_>
          12 9 3 2 -1.</_>
        <_>
          12 10 3 1 2.</_></rects>
      <tilted>0</tilted></_>
    <_>
      <rects>
        <_>
          12 12 2 1 -1.</_>
        <_>
          13 12 1 1 2.</_></rects>
      <tilted>0</tilted></_>
    <_>
      <rects>
        <_>
          12 15 3 1 -1.</_>
        <_>
          13 15 1 1 3.</_></rects>
      <tilted>0</tilted></_>
    <_>
      <rects>
        <_>
          12 23 2 1 -1.</_>
        <_>
          13 23 1 1 2.</_></rects>
      <tilted>0</tilted></_>
    <_>
      <rects>
        <_>
          13 0 1 2 -1.</_>
        <_>
          13 1 1 1 2.</_></rects>
      <tilted>0</tilted></_>
    <_>
      <rects>
        <_>
          13 1 2 21 -1.</_>
        <_>
          14 1 1 21 2.</_></rects>
      <tilted>0</tilted></_>
    <_>
      <rects>
        <_>
          13 2 5 18 -1.</_>
        <_>
          13 11 5 9 2.</_></rects>
      <tilted>0</tilted></_>
    <_>
      <rects>
        <_>
          13 13 9 6 -1.</_>
        <_>
          16 13 3 6 3.</_></rects>
      <tilted>0</tilted></_>
    <_>
      <rects>
        <_>
          13 15 2 2 -1.</_>
        <_>
          13 15 1 1 2.</_>
        <_>
          14 16 1 1 2.</_></rects>
      <tilted>0</tilted></_>
    <_>
      <rects>
        <_>
          13 21 3 2 -1.</_>
        <_>
          14 21 1 2 3.</_></rects>
      <tilted>0</tilted></_>
    <_>
      <rects>
        <_>
          14 1 4 15 -1.</_>
        <_>
          14 6 4 5 3.</_></rects>
      <tilted>0</tilted></_>
    <_>
      <rects>
        <_>
          14 8 1 3 -1.</_>
        <_>
          14 9 1 1 3.</_></rects>
      <tilted>0</tilted></_>
    <_>
      <rects>
        <_>
          14 8 2 6 -1.</_>
        <_>
          14 11 2 3 2.</_></rects>
      <tilted>0</tilted></_>
    <_>
      <rects>
        <_>
          14 8 8 6 -1.</_>
        <_>
          14 8 4 3 2.</_>
        <_>
          18 11 4 3 2.</_></rects>
      <tilted>0</tilted></_>
    <_>
      <rects>
        <_>
          14 8 5 2 -1.</_>
        <_>
          14 9 5 1 2.</_></rects>
      <tilted>0</tilted></_>
    <_>
      <rects>
        <_>
          14 9 7 6 -1.</_>
        <_>
          14 11 7 2 3.</_></rects>
      <tilted>0</tilted></_>
    <_>
      <rects>
        <_>
          14 20 1 3 -1.</_>
        <_>
          14 21 1 1 3.</_></rects>
      <tilted>0</tilted></_>
    <_>
      <rects>
        <_>
          15 14 8 8 -1.</_>
        <_>
          15 14 4 4 2.</_>
        <_>
          19 18 4 4 2.</_></rects>
      <tilted>0</tilted></_>
    <_>
      <rects>
        <_>
          15 20 4 4 -1.</_>
        <_>
          15 20 2 2 2.</_>
        <_>
          17 22 2 2 2.</_></rects>
      <tilted>0</tilted></_>
    <_>
      <rects>
        <_>
          15 21 1 3 -1.</_>
        <_>
          15 22 1 1 3.</_></rects>
      <tilted>0</tilted></_>
    <_>
      <rects>
        <_>
          16 9 3 6 -1.</_>
        <_>
          16 11 3 2 3.</_></rects>
      <tilted>0</tilted></_>
    <_>
      <rects>
        <_>
          18 0 4 2 -1.</_>
        <_>
          18 0 2 1 2.</_>
        <_>
          20 1 2 1 2.</_></rects>
      <tilted>0</tilted></_>
    <_>
      <rects>
        <_>
          18 5 4 16 -1.</_>
        <_>
          18 5 2 8 2.</_>
        <_>
          20 13 2 8 2.</_></rects>
      <tilted>0</tilted></_>
    <_>
      <rects>
        <_>
          18 17 4 2 -1.</_>
        <_>
          18 17 2 1 2.</_>
        <_>
          20 18 2 1 2.</_></rects>
      <tilted>0</tilted></_>
    <_>
      <rects>
        <_>
          19 0 2 4 -1.</_>
        <_>
          19 2 2 2 2.</_></rects>
      <tilted>0</tilted></_>
    <_>
      <rects>
        <_>
          19 2 4 2 -1.</_>
        <_>
          21 2 2 2 2.</_></rects>
      <tilted>0</tilted></_>
    <_>
      <rects>
        <_>
          19 17 5 3 -1.</_>
        <_>
          19 18 5 1 3.</_></rects>
      <tilted>0</tilted></_>
    <_>
      <rects>
        <_>
          19 21 1 2 -1.</_>
        <_>
          19 22 1 1 2.</_></rects>
      <tilted>0</tilted></_>
    <_>
      <rects>
        <_>
          20 2 2 18 -1.</_>
        <_>
          20 2 1 9 2.</_>
        <_>
          21 11 1 9 2.</_></rects>
      <tilted>0</tilted></_>
    <_>
      <rects>
        <_>
          20 8 2 8 -1.</_>
        <_>
          20 8 1 4 2.</_>
        <_>
          21 12 1 4 2.</_></rects>
      <tilted>0</tilted></_>
    <_>
      <rects>
        <_>
          20 11 1 6 -1.</_>
        <_>
          20 13 1 2 3.</_></rects>
      <tilted>0</tilted></_>
    <_>
      <rects>
        <_>
          21 5 2 7 -1.</_>
        <_>
          22 5 1 7 2.</_></rects>
      <tilted>0</tilted></_>
    <_>
      <rects>
        <_>
          22 0 1 4 -1.</_>
        <_>
          22 2 1 2 2.</_></rects>
      <tilted>0</tilted></_>
    <_>
      <rects>
        <_>
          22 2 2 2 -1.</_>
        <_>
          23 2 1 2 2.</_></rects>
      <tilted>0</tilted></_>
    <_>
      <rects>
        <_>
          22 3 2 18 -1.</_>
        <_>
          22 12 2 9 2.</_></rects>
      <tilted>0</tilted></_>
    <_>
      <rects>
        <_>
          22 8 2 3 -1.</_>
        <_>
          23 8 1 3 2.</_></rects>
      <tilted>0</tilted></_>
    <_>
      <rects>
        <_>
          22 9 2 15 -1.</_>
        <_>
          23 9 1 15 2.</_></rects>
      <tilted>0</tilted></_>
    <_>
      <rects>
        <_>
          22 12 2 2 -1.</_>
        <_>
          22 12 1 1 2.</_>
        <_>
          23 13 1 1 2.</_></rects>
      <tilted>0</tilted></_>
    <_>
      <rects>
        <_>
          22 13 1 6 -1.</_>
        <_>
          22 15 1 2 3.</_></rects>
      <tilted>0</tilted></_>
    <_>
      <rects>
        <_>
          23 3 1 2 -1.</_>
        <_>
          23 4 1 1 2.</_></rects>
      <tilted>0</tilted></_>
    <_>
      <rects>
        <_>
          23 12 1 3 -1.</_>
        <_>
          23 13 1 1 3.</_></rects>
      <tilted>0</tilted></_></features></cascade>
</opencv_storage>
